[[array([[ 0.05275026,  0.8759255 , -0.5799396 , ..., -0.14104585,
          -0.10965554, -0.2481923 ],
         [-0.21135621, -0.43935618,  0.018366  , ..., -0.28939417,
           0.29638934, -0.0244275 ],
         [ 0.04656   ,  0.21318   , -0.0074364 , ...,  0.0090611 ,
          -0.20989   ,  0.053913  ],
         ...,
         [-0.32877797,  0.7568015 , -0.42954087, ...,  0.17278506,
           0.10194901,  0.34201914],
         [-0.0885017 , -0.09336593, -0.13535121, ...,  0.41116676,
          -0.47881833,  0.16922826],
         [-0.7431085 , -0.19375199,  0.11384647, ...,  0.36198768,
          -0.27405024, -0.1831466 ]], dtype=float32)],
 [array([[ 0.10235967, -0.12020773, -0.1051188 , ...,  0.18597844,
          -0.08357748, -0.1291447 ],
         [ 0.05468216,  0.16634011,  0.00637026, ...,  0.13240567,
           0.2074822 , -0.1845842 ],
         [ 0.2019278 ,  0.13456872, -0.07895426, ..., -0.01038006,
          -0.04509534, -0.10231361],
         ...,
         [-0.11431727, -0.01866596,  0.0930934 , ..., -0.02198254,
          -0.23380941,  0.136664  ],
         [-0.05653984, -0.15048507, -0.06557801, ..., -0.05453579,
           0.05713953,  0.05495566],
         [ 0.20385405,  0.02875057, -0.12703791, ...,  0.08791414,
          -0.04424733, -0.04003694]], dtype=float32),
  array([[ 0.03731497,  0.12536612,  0.0767963 , ...,  0.02958817,
           0.01835858,  0.12131187],
         [ 0.0057065 , -0.14507739, -0.04313457, ..., -0.06671482,
          -0.08903404, -0.0242555 ],
         [-0.1282262 , -0.11858569, -0.1361021 , ..., -0.135078  ,
           0.00528524, -0.03289025],
         ...,
         [ 0.03078352, -0.14936243, -0.00755077, ..., -0.01890837,
          -0.06252763,  0.03560807],
         [-0.20151585, -0.08261061, -0.08370268, ..., -0.0080526 ,
           0.00182583, -0.05740254],
         [ 0.15050215,  0.00553826, -0.07628357, ..., -0.01207621,
          -0.01563131, -0.07025521]], dtype=float32),
  array([-4.45931293e-02, -1.87730119e-02, -6.91659823e-02,  2.82256939e-02,
         -1.08072661e-01, -4.15469073e-02,  1.95364282e-02, -7.37674087e-02,
         -7.72943869e-02, -1.02038588e-02, -2.11653765e-02, -1.50372356e-01,
         -1.48572192e-01, -8.22751001e-02, -8.23081471e-03, -2.45292783e-02,
          1.33581581e-02, -6.76398277e-02, -9.69849676e-02, -5.65032475e-02,
         -5.43597378e-02,  4.01307493e-02, -4.94151860e-02,  6.37584701e-02,
         -1.35237155e-02, -8.32004771e-02, -7.59702623e-02, -5.76752499e-02,
          7.13624209e-02, -3.79436165e-02, -1.15150332e-01, -3.37206572e-02,
         -1.25797555e-01, -2.25341227e-02, -2.51057390e-02,  3.75444368e-02,
         -4.04933244e-02, -5.96231893e-02, -1.51356354e-01, -9.77499634e-02,
         -1.71711877e-01, -1.90695018e-01, -2.88112424e-02, -1.26691923e-01,
          5.31187803e-02, -6.99623972e-02, -2.12013751e-01,  9.25734267e-02,
         -1.57746404e-01, -2.77018230e-02, -2.05280054e-02, -1.41505497e-02,
         -7.84879401e-02,  6.98581338e-02, -4.45786901e-02, -9.90433022e-02,
         -1.11744329e-02, -3.60311456e-02, -2.66100634e-02, -5.11639342e-02,
          5.97695522e-02, -1.22854137e-03, -2.74941023e-03, -2.49015540e-02,
          1.06323195e+00,  1.01269996e+00,  1.00285542e+00,  1.02651346e+00,
          1.00604975e+00,  1.04804516e+00,  9.82667625e-01,  1.03492713e+00,
          1.05833757e+00,  9.82458770e-01,  1.00501573e+00,  1.11808872e+00,
          1.01984835e+00,  1.07418394e+00,  1.11263883e+00,  1.02353799e+00,
          9.94712472e-01,  1.00478053e+00,  1.01306868e+00,  1.04055119e+00,
          1.02714753e+00,  9.90251303e-01,  9.72930849e-01,  1.04470932e+00,
          9.76535618e-01,  1.06494391e+00,  1.11908531e+00,  1.01188219e+00,
          9.81122971e-01,  1.10198939e+00,  1.05282676e+00,  1.09894586e+00,
          1.08643949e+00,  1.05576563e+00,  1.03291655e+00,  9.61313963e-01,
          9.80978310e-01,  1.15135396e+00,  1.08001387e+00,  9.87714231e-01,
          1.09231699e+00,  1.14208949e+00,  1.02254391e+00,  1.13181376e+00,
          9.73337293e-01,  1.02154219e+00,  1.11166525e+00,  1.02950132e+00,
          1.08306742e+00,  9.84084427e-01,  1.03268898e+00,  1.00459433e+00,
          1.06251001e+00,  1.00656259e+00,  1.06848025e+00,  1.12014484e+00,
          1.02495635e+00,  1.09804285e+00,  1.09560311e+00,  9.97593403e-01,
          1.01101470e+00,  1.04378581e+00,  9.53263581e-01,  1.05661440e+00,
         -6.25775778e-04,  2.00732648e-02,  2.46379096e-02, -6.67109061e-03,
         -1.96262449e-02, -5.64723415e-03, -2.59206351e-02,  1.38370541e-03,
         -4.64034453e-03,  1.09525584e-02, -2.49053240e-02, -4.19036951e-03,
          3.71034406e-02, -2.43294537e-02,  6.97508361e-03, -1.62079055e-02,
          7.46222259e-03, -2.78490167e-02, -9.15163197e-03,  5.40114567e-03,
         -2.16316804e-02,  1.53706279e-02, -6.76830241e-05, -2.52657682e-02,
         -2.46351305e-02, -1.14914309e-02,  2.61725392e-02, -2.41420940e-02,
         -1.97071093e-03, -1.79716274e-02, -3.15301074e-03,  2.36299746e-02,
         -1.03837131e-02, -2.00285055e-02, -4.79548378e-03,  9.26949177e-03,
         -3.42122056e-02, -2.12553591e-02, -7.65226036e-03, -1.79851875e-02,
         -2.92053893e-02, -7.96373188e-03, -1.16198314e-02,  6.29713060e-04,
         -5.60180694e-02, -7.79467775e-03, -3.58429886e-02,  1.90657303e-02,
         -8.66365246e-03, -3.06472257e-02,  3.25675197e-02,  1.87880211e-02,
         -1.61999445e-02,  1.77659411e-02,  3.24788550e-03,  8.91638640e-03,
          1.39969727e-02,  1.89092327e-02, -3.80109958e-02,  3.00753303e-03,
         -3.68907228e-02, -1.78159438e-02,  1.17683373e-02, -3.45100998e-03,
         -2.47620959e-02,  4.30367701e-02, -5.58500066e-02,  9.96694248e-03,
          7.75136575e-02, -3.46173607e-02, -4.06440571e-02,  1.38651822e-02,
          4.57291398e-03, -3.02344598e-02, -7.09428936e-02,  2.02246616e-03,
         -3.91244423e-03,  1.88142881e-02,  3.48853506e-02, -5.22506470e-03,
         -6.64441213e-02, -6.47102743e-02,  8.54059458e-02, -1.29376110e-02,
          2.00368417e-03,  1.00683114e-02,  6.28434196e-02,  2.06224993e-02,
         -5.32609457e-03, -6.00326397e-02, -7.15611735e-03,  2.89518367e-02,
          5.84140942e-02,  4.74845916e-02,  5.23668528e-02,  6.02026358e-02,
          5.55712823e-03,  4.32997234e-02,  5.27139753e-02,  4.77728881e-02,
         -1.21819945e-02,  5.28369546e-02, -9.35009797e-04, -2.14435849e-02,
          3.19877937e-02,  6.81587607e-02, -1.91329196e-02,  1.44119735e-03,
          7.08480403e-02, -5.39872944e-02, -5.60821965e-03, -7.90044200e-03,
          3.13326158e-02, -3.56956795e-02, -3.80004309e-02, -1.86612513e-02,
         -3.85924913e-02,  1.06411561e-01,  3.07337698e-02,  3.07208337e-02,
         -6.27677813e-02,  6.93226382e-02,  3.50985900e-02, -1.58202574e-02,
         -2.89413594e-02,  8.75891373e-02,  1.14587300e-01,  2.87837302e-03],
        dtype=float32),
  array([[-1.02559868e-02,  4.54284102e-02,  7.26863369e-02, ...,
          -3.62274423e-02, -9.75456461e-02, -1.28704935e-01],
         [ 8.62299465e-03,  4.88395542e-02,  4.50090878e-02, ...,
          -1.08324848e-01,  7.43197161e-05, -6.92782402e-02],
         [-5.10572596e-03, -1.20295407e-02,  3.46683487e-02, ...,
           1.15673520e-01,  9.75820348e-02, -9.97106358e-03],
         ...,
         [ 5.96620850e-02,  6.07170984e-02, -1.14734635e-01, ...,
           1.11276638e-02,  8.42624754e-02, -1.06361352e-01],
         [ 2.69715972e-02,  6.47698492e-02, -1.44769147e-01, ...,
          -7.77320489e-02, -5.17435186e-02,  8.33331645e-02],
         [ 5.52099682e-02,  7.01610819e-02,  4.85423543e-02, ...,
           6.54314011e-02, -6.74637556e-02,  4.17759083e-02]], dtype=float32),
  array([[ 0.08480752,  0.05329087, -0.10853275, ...,  0.15908979,
           0.07714318,  0.01397404],
         [-0.00193263,  0.07369088,  0.10940903, ...,  0.00883955,
           0.00409283,  0.00235694],
         [-0.07339495, -0.00753464,  0.02259517, ...,  0.00637211,
          -0.05669305, -0.06196807],
         ...,
         [-0.00555023, -0.05758223,  0.0382257 , ...,  0.03926207,
           0.01341022, -0.16992301],
         [ 0.11053759,  0.03526211,  0.01672085, ..., -0.07258287,
           0.01297383,  0.12028117],
         [-0.09439216,  0.0187117 ,  0.01591498, ...,  0.0850099 ,
          -0.01679666,  0.03639253]], dtype=float32),
  array([-2.32703742e-02, -7.96647742e-03,  2.70181149e-02,  2.36158017e-02,
         -2.72492990e-02, -2.63774693e-02,  5.18426392e-03,  7.86945038e-03,
          3.44258472e-02,  7.23503297e-03, -4.64274250e-02, -3.03411987e-02,
          3.33134155e-03,  2.68653575e-02,  9.62441601e-03, -9.49892122e-03,
          6.14165561e-04, -3.24722379e-02,  1.08553050e-02, -2.44396552e-03,
         -4.85151745e-02,  3.74151859e-03, -2.25770148e-03, -1.99365765e-02,
         -1.64181180e-02,  6.02289811e-02,  3.80833028e-03, -7.32993102e-03,
         -4.21578027e-02,  1.78492349e-02, -6.26323819e-02,  4.73081740e-03,
         -3.58154476e-02, -2.09804694e-03, -1.23217041e-02, -2.42432747e-02,
         -1.97246391e-02, -2.32923720e-02,  1.14347525e-02, -2.21185796e-02,
         -8.46196525e-03,  1.25091532e-02, -2.95310877e-02,  1.64877567e-02,
         -1.87817514e-02,  2.02548504e-02, -4.74193357e-02,  2.39476990e-02,
         -1.90313309e-02,  4.26966175e-02, -3.80816823e-03,  2.16614250e-02,
          9.06879921e-03, -3.27383205e-02, -3.12027074e-02, -3.05429064e-02,
         -7.02927774e-03, -3.15835364e-02,  3.78903858e-02, -3.21319588e-02,
         -1.36190075e-02, -4.71704714e-02,  3.89831476e-02, -1.42334718e-02,
          9.83432949e-01,  1.00625932e+00,  1.02333009e+00,  1.01230431e+00,
          9.81966019e-01,  9.79652405e-01,  9.93176579e-01,  1.04173660e+00,
          1.00606692e+00,  1.00688815e+00,  9.56732571e-01,  9.74458456e-01,
          1.00635755e+00,  1.01100171e+00,  9.99251306e-01,  9.83344138e-01,
          9.89341557e-01,  9.72854674e-01,  1.00467706e+00,  1.00173581e+00,
          9.69726384e-01,  9.82729852e-01,  9.97511089e-01,  9.98362541e-01,
          9.94449377e-01,  9.97356832e-01,  1.00243032e+00,  9.84208584e-01,
          9.62707102e-01,  1.00588274e+00,  9.56952095e-01,  9.99224901e-01,
          9.74860251e-01,  9.81337607e-01,  9.97690022e-01,  9.89969671e-01,
          9.92099643e-01,  9.71557617e-01,  1.00098491e+00,  9.83780622e-01,
          1.00041044e+00,  1.00773346e+00,  9.65779245e-01,  1.00773072e+00,
          1.00047040e+00,  1.00931942e+00,  9.70308840e-01,  1.00010121e+00,
          9.94855583e-01,  1.01153731e+00,  1.00578558e+00,  1.01157975e+00,
          1.00724888e+00,  9.79090631e-01,  9.85083103e-01,  9.80031013e-01,
          1.01261353e+00,  9.76517797e-01,  1.01376176e+00,  9.78597403e-01,
          9.85869110e-01,  9.65715528e-01,  1.02100408e+00,  9.83752668e-01,
         -9.15758125e-03,  2.24672332e-02,  2.79511698e-02, -5.93217788e-03,
         -3.69487097e-03, -4.25939402e-03,  2.40466930e-02,  3.20489705e-02,
          1.60977768e-03, -2.31176820e-02, -1.71269383e-02, -3.52934847e-04,
          3.48266243e-04,  6.37101056e-03, -9.68648586e-03,  4.41933330e-03,
          1.97009440e-03, -1.06142201e-02, -8.26102775e-03, -8.36457126e-04,
         -4.39641858e-03, -1.87248527e-03,  8.33591633e-03,  1.99029800e-02,
         -1.81862724e-03, -1.26188584e-02,  1.17790066e-02, -2.06472748e-03,
          2.85483809e-04, -1.61874555e-02,  1.19337765e-02, -5.29694092e-03,
          3.08659440e-03,  4.54919413e-03,  1.49723038e-03, -1.63024869e-02,
          1.03700887e-02, -7.93635566e-03,  1.90504994e-02,  1.67130586e-02,
         -2.72430591e-02,  1.93417864e-03, -9.99628659e-03,  6.85495324e-03,
         -6.57230197e-03, -1.91982202e-02,  4.39399667e-03,  3.19828023e-03,
         -8.64616502e-03,  1.97610026e-03, -2.51836311e-02,  3.53690190e-03,
          4.24485595e-04, -2.33542189e-04, -1.40053323e-02,  1.00958021e-02,
          8.55429098e-03,  2.79778987e-02, -1.22234656e-03,  6.71157613e-04,
         -4.04034916e-04, -5.98312449e-03,  1.28033124e-02,  2.73422571e-04,
         -3.31008174e-02,  3.57061927e-03, -3.57525684e-02, -5.01088984e-02,
         -2.35970858e-02, -2.57098563e-02, -1.98253039e-02, -5.47536090e-03,
         -3.88805685e-03, -4.30273078e-02, -4.99967784e-02, -2.42016651e-02,
          2.55720969e-02,  1.36648864e-02, -4.01336215e-02,  1.23268412e-02,
         -3.58049013e-02, -3.68407965e-02, -3.54318768e-02, -1.71579961e-02,
         -4.52446714e-02, -4.44905609e-02, -2.14271247e-02, -3.56111303e-02,
         -5.03622852e-02, -3.51412334e-02, -2.81200297e-02, -3.51625159e-02,
         -3.63521166e-02, -2.56905258e-02, -4.04757261e-02, -3.71867791e-02,
         -3.71399671e-02, -2.63177305e-02, -3.45143154e-02, -4.25514355e-02,
         -3.89349135e-03, -2.48741917e-02, -3.00223567e-02, -2.36080345e-02,
         -4.43521477e-02, -3.48617770e-02, -3.29081975e-02, -1.57819763e-02,
          2.89039817e-02, -3.89822237e-02, -5.27018420e-02, -2.54552625e-02,
         -4.11257558e-02, -2.81996429e-02,  3.52792293e-02,  5.40071307e-03,
         -3.44927353e-03, -3.57328691e-02, -3.61904539e-02, -2.25238502e-02,
         -1.05050355e-02, -3.84376012e-02, -3.18634026e-02, -2.83735935e-02,
         -1.09675359e-02, -5.12503050e-02, -3.56409065e-02, -1.18176378e-02],
        dtype=float32)],
 [array([[-0.01859477, -0.227333  ,  0.1094696 , ..., -0.03493024,
           0.16642772, -0.02124763],
         [-0.01928739,  0.10499028,  0.14891692, ...,  0.09778749,
           0.04043355,  0.22569734],
         [ 0.08020908,  0.25905952, -0.02260405, ..., -0.14413853,
          -0.1436405 , -0.05020021],
         ...,
         [ 0.05709058, -0.014796  ,  0.13453527, ...,  0.06017601,
           0.1360603 ,  0.11039796],
         [ 0.01945218, -0.12323316,  0.03944363, ...,  0.1933906 ,
          -0.1770274 ,  0.00919611],
         [ 0.0828869 , -0.13619062,  0.00507482, ..., -0.16625087,
           0.02958653,  0.15419456]], dtype=float32),
  array([-0.03053131,  0.05756829, -0.03761397,  0.04608238,  0.00729672,
         -0.00966466,  0.01724358,  0.04436532,  0.01047626,  0.0186485 ,
          0.01425042, -0.01079019,  0.07765929,  0.01074484,  0.06334187,
         -0.03896108,  0.02411933, -0.00655699,  0.04681193,  0.05568951,
          0.03651406,  0.0159361 , -0.05228072, -0.03004827,  0.02608611,
          0.01867088,  0.06136493,  0.02238557, -0.07937881, -0.03525126,
          0.02931141,  0.02465217,  0.02716313, -0.02786334, -0.02155733,
          0.02587428,  0.02615394, -0.08200955,  0.01835337, -0.0478561 ,
         -0.06967246, -0.05208948, -0.03585931, -0.01349191,  0.07407214,
          0.01485583, -0.04464519,  0.06025193, -0.01231686,  0.01438476,
          0.0400636 ,  0.01738495,  0.06710105,  0.03873847,  0.00517651,
          0.04128047,  0.03772537, -0.0604527 ,  0.03024939, -0.01924825,
          0.03279722, -0.04782074,  0.01017065,  0.04424199], dtype=float32)],
 [array([[-4.22763340e-02,  1.91416785e-01,  1.40592352e-01],
         [ 2.53659010e-01, -3.70485634e-01,  6.17597401e-02],
         [ 1.88045707e-02,  2.52796978e-01, -1.70008674e-01],
         [ 2.98019946e-01, -4.14071262e-01,  2.97915518e-01],
         [-3.64005804e-01, -1.96917459e-01, -4.12775502e-02],
         [ 2.23364169e-03, -1.37043610e-01,  3.36963415e-01],
         [-6.13132976e-02,  2.90144682e-01,  2.01955557e-01],
         [-2.77893245e-01,  2.81312764e-01,  1.01167269e-01],
         [-1.44185811e-01, -1.40013933e-01,  4.94219698e-02],
         [-2.68391222e-01,  2.26846680e-01, -3.46766263e-01],
         [-8.97423849e-02, -3.40390056e-01, -1.18432224e-01],
         [-2.36036837e-01,  2.75107592e-01, -2.65731514e-01],
         [ 3.09953839e-03, -2.17488497e-01,  3.45432788e-01],
         [-1.12144098e-01, -3.38987052e-01,  3.93778026e-01],
         [-1.11329630e-01,  2.73920536e-01,  2.57124007e-01],
         [ 1.27640888e-01, -5.74163198e-02, -2.30970204e-01],
         [-3.81692648e-01, -9.56697203e-03,  4.12298054e-01],
         [ 3.92053388e-02, -1.09210618e-01,  4.98721413e-02],
         [-4.16778266e-01,  1.31608471e-01,  3.28203291e-01],
         [ 1.12278029e-01, -1.48778841e-01, -3.18433046e-01],
         [ 2.05544778e-03, -3.23664665e-01,  2.92464733e-01],
         [-2.12418333e-01, -3.85489315e-01,  2.38403574e-01],
         [-9.05395672e-02,  6.60504699e-02, -8.90762731e-02],
         [ 3.92108411e-02, -3.75027172e-02, -1.26137778e-01],
         [-5.05382538e-01, -1.73856258e-01, -1.87932432e-01],
         [-4.03699756e-01, -2.17114022e-04, -1.20181613e-01],
         [-3.90693516e-01,  4.54922020e-02,  1.60511613e-01],
         [-3.56167555e-01,  2.75383741e-01,  1.75476715e-01],
         [ 1.86690152e-01, -7.17349052e-02,  3.53071913e-02],
         [ 8.88387263e-02,  1.61886603e-01,  1.17619202e-01],
         [ 7.39526600e-02, -3.52406204e-01, -2.22619742e-01],
         [ 5.87382913e-03,  3.53178009e-02,  4.16649669e-01],
         [ 4.03689034e-03, -1.34749398e-01,  1.63800314e-01],
         [ 5.84969297e-02, -9.66027528e-02, -2.25409672e-01],
         [-8.74446034e-02,  3.02820235e-01,  1.21355876e-02],
         [-3.84573527e-02,  3.46101701e-01, -5.49614914e-02],
         [ 3.68975222e-01, -1.19628966e-01, -2.17757514e-03],
         [ 9.81907472e-02, -1.93266436e-01, -2.28009075e-01],
         [-3.04976404e-01, -8.99737254e-02,  2.42437556e-01],
         [-1.79531917e-01,  2.15245917e-01, -2.36135349e-01],
         [-9.21377689e-02,  2.23024996e-04, -6.84843911e-03],
         [-7.29132146e-02, -9.00393873e-02, -1.15131110e-01],
         [ 2.25564867e-01, -1.30341694e-01,  6.41076313e-03],
         [ 9.96919721e-02,  1.20934919e-01, -2.54501402e-01],
         [-4.57088172e-01, -3.40039194e-01, -6.55794814e-02],
         [-4.48428793e-03,  1.96324274e-01,  2.88728327e-01],
         [-3.75355661e-01, -8.55326951e-02,  6.59552068e-02],
         [ 3.21119815e-01,  3.60220931e-02, -2.69009113e-01],
         [-3.04846652e-02,  1.28765807e-01,  3.05052008e-02],
         [-2.10187092e-01, -4.01991867e-02,  3.15695107e-01],
         [-3.60165745e-01, -1.24166422e-01, -2.12853425e-03],
         [-2.39678174e-01, -2.85174191e-01,  2.33753747e-03],
         [-3.53719562e-01,  9.95674431e-02,  7.04754442e-02],
         [ 1.52114555e-01,  2.01092675e-01, -3.52698892e-01],
         [-1.65000781e-02,  1.10458381e-01,  2.79467911e-01],
         [-8.42720568e-02, -7.69219622e-02,  2.25118265e-01],
         [-3.97885531e-01, -6.73686415e-02, -2.54889965e-01],
         [ 2.28173435e-01,  1.74356043e-01,  1.66582614e-01],
         [-1.81849301e-01, -3.00319437e-02,  3.12933087e-01],
         [ 7.88092092e-02,  1.52315810e-01,  2.44090423e-01],
         [-3.36497545e-01,  1.63224071e-01, -2.31365964e-01],
         [-1.69549480e-01,  2.43999921e-02,  3.69951464e-02],
         [-2.13535532e-01, -1.77583233e-01,  1.16887264e-01],
         [ 2.43733659e-01, -6.86605647e-02,  3.18095118e-01]], dtype=float32),
  array([ 0.01113211,  0.01262157, -0.02109137], dtype=float32)]]